#include "edgedrnn_params.h"
const signed char rnn_param[RNN_PARAM_SIZE] = {
4,-10,28,4,10,6,-10,18,16,-12,22,0,-16,13,28,24,
-127,-75,-121,-107,-93,-63,-81,-49,-89,-127,-127,-127,-102,-127,-127,-29,
-30,-3,17,1,-2,-1,10,3,28,-2,-6,6,5,-13,1,-5,
-25,-7,-13,-23,-20,26,-4,24,-117,0,-9,-98,-114,5,2,-47,
0,-49,30,1,-13,6,44,1,8,-17,12,-42,-19,-26,7,21,
-17,9,-5,-6,16,-7,43,61,-15,1,0,-3,29,4,-3,27,
-32,-37,-32,5,10,-67,18,-26,-73,0,-63,-44,-11,30,-26,-15,
-53,-3,71,-100,-127,-125,-127,-127,-116,-60,-116,-82,0,-88,13,-127,
2,36,-50,53,74,-40,-74,-40,-44,18,14,-58,2,20,13,13,
127,-81,-64,-71,3,44,-15,127,-127,62,-64,48,-110,-122,-48,-82,
-21,-62,14,-121,33,11,-84,-7,-10,65,-56,127,67,54,-71,18,
-52,-86,87,-6,48,86,-19,127,6,-39,-4,-44,-122,11,-14,127,
-8,-127,5,102,-18,99,127,-60,-20,-15,-34,29,80,-106,119,-14,
-53,38,-79,127,84,-49,117,-120,-127,-72,-116,-127,81,127,115,127,
-45,58,-69,-24,5,65,-61,-63,-37,9,-119,39,127,45,73,-71,
26,25,47,11,-20,9,85,-104,-7,16,-85,72,49,-109,40,73,
-22,-110,-32,-2,64,53,-93,-26,-50,29,-26,-31,75,92,-47,49,
91,-9,54,-81,-11,55,17,-87,-18,109,105,-83,8,-120,-127,-34,
64,44,40,69,1,83,-41,-7,-16,16,4,-24,-52,0,-8,48,
-9,30,-102,88,-50,102,-67,-94,-18,-86,-111,-100,-35,-127,-74,-127,
89,-50,-60,21,46,9,-14,9,-21,13,23,1,12,48,-4,-9,
-124,-22,74,126,124,96,-72,41,-84,-127,125,-108,1,-59,-101,111,
127,127,127,46,6,-26,74,41,127,127,40,-49,-24,55,43,53,
-65,-21,-23,2,78,-70,-100,100,58,-14,28,-27,-27,-25,-52,-7,
0,0,0,0,0,0,0,0,0,0,0,0,0,0,0,0,
0,0,0,0,0,0,0,0,0,0,0,0,0,0,0,0,
0,0,0,0,0,0,0,0,0,0,0,0,0,0,0,0,
-12,26,39,-31,29,-14,-44,-6,2,32,52,42,18,26,-53,-61,
-126,-65,-23,-48,39,62,44,-45,-10,-37,-27,-23,70,83,69,-106,
-5,26,1,23,76,-51,-36,-20,-98,-13,-10,-14,39,-11,-22,-32,
-1,-13,67,44,18,-63,97,-12,9,-3,-25,34,2,-41,-11,-27,
22,71,67,-59,-62,-118,-118,-88,-127,-85,-127,23,6,25,-95,42,
59,-39,-27,-9,-26,-73,19,-58,35,20,22,83,-28,4,-35,-1,
14,71,-42,-61,-41,-32,5,18,-18,10,-2,1,-18,2,25,-42,
-12,-57,46,61,26,-57,41,34,82,54,32,92,-36,52,-66,111,
-3,34,7,12,35,-51,-10,-8,-15,59,108,-16,-5,-17,13,6,
-107,42,-21,51,91,-22,-24,4,-103,-24,-67,14,-24,44,-43,38,
-74,-73,-16,-30,-18,41,-92,-127,-10,66,-23,2,60,47,-116,-27,
28,-11,15,21,24,70,-23,36,-37,24,8,47,25,-5,-69,20,
3,38,55,59,7,51,-13,2,-43,74,28,15,-56,75,-11,-42,
7,-110,71,-12,62,-61,-61,-108,-89,-3,-127,-100,20,-71,-127,-65,
20,36,-107,38,24,9,-23,20,-52,-22,-16,65,-8,-60,15,0,
68,-7,47,33,77,62,39,-47,-43,-59,46,72,71,-54,115,-78,
10,-58,-84,13,-38,9,-7,-57,7,25,-101,76,99,127,55,74,
-97,47,-44,5,22,0,-26,53,-47,25,-124,22,-5,-12,127,-19,
10,-115,-44,20,19,-58,10,0,-25,70,-55,-12,-4,64,26,0,
112,127,68,-90,-57,-7,127,127,66,17,-37,15,53,20,-1,55,
80,-68,8,33,18,14,32,-31,14,-23,24,-34,17,-39,14,-55,
67,-6,-61,51,57,-30,21,-28,-78,62,83,18,7,-77,16,-22,
61,48,-32,100,-3,0,-9,66,44,116,-3,47,24,86,16,82,
49,-5,15,34,-85,62,-24,-6,41,-64,-7,-14,21,50,33,33,
8,8,4,-92,-75,-10,-60,-52,-25,-88,24,25,42,14,-18,-6,
-20,80,-28,18,10,41,-33,127,98,-64,-92,-53,-67,1,-118,68,
56,0,-10,35,19,-30,-10,-20,120,8,-56,-56,-19,79,33,24,
91,10,124,56,-58,-34,79,-81,124,-69,-29,45,41,18,11,51,
-33,30,-89,88,-2,25,31,-57,15,-61,127,6,26,89,102,58,
-69,41,-82,-102,36,19,-27,-45,22,13,-126,101,-34,99,100,-41,
45,-7,26,55,35,-13,-126,95,-34,74,91,-17,-64,49,-78,61,
-59,-62,70,-127,-19,-13,-88,33,-12,-92,88,-40,-17,-14,-29,-13,
-10,57,-45,-49,63,-1,-51,44,-3,4,-19,-13,19,-68,-31,-31,
-90,90,127,-11,25,-10,-34,-26,127,-127,76,-104,52,74,-41,37,
-58,77,-22,102,-75,-43,81,44,64,-60,-18,43,-99,73,49,73,
-39,-48,-67,-11,35,-60,67,-27,38,64,8,-2,-5,-21,-26,-41,
71,-33,-25,68,17,-20,127,2,8,7,26,-48,66,44,21,-23,
48,41,9,-108,-48,55,13,9,-7,-13,-74,-6,20,-18,-84,-7,
11,-27,-17,-43,-32,53,-40,-54,-4,62,-38,5,-12,-40,45,-65,
50,105,-22,13,104,15,4,66,52,-10,75,6,-14,98,9,4,
-2,-109,-16,63,-33,78,2,31,24,8,-12,90,-28,-2,71,-91,
6,-36,-26,-28,-14,36,-52,28,-58,-39,24,2,60,-77,13,24,
35,6,-9,50,5,-95,31,-24,79,54,-72,-101,-4,-10,122,-53,
11,21,-28,-107,-118,9,76,67,-6,63,-12,-15,-10,-114,71,83,
-3,13,-7,-43,-74,-9,24,15,15,-38,42,38,16,-23,-86,-88,
-19,47,-34,-21,2,32,-8,29,-100,47,70,61,-52,-30,-127,-95,
81,-70,16,94,52,-35,-32,20,-36,-14,-50,7,40,-39,-10,116,
37,4,-34,44,-13,46,21,124,-57,14,4,40,-33,46,-26,4,
-40,28,11,13,-26,0,-11,7,-3,-14,1,35,15,46,23,1,
-24,-127,-85,-62,22,-15,-18,-8,-101,31,12,-127,-75,-55,-52,-106,
16,-17,-3,-13,0,-18,-3,13,-5,22,5,10,37,15,13,7,
84,-9,1,-52,18,127,33,-53,19,120,-55,25,98,85,6,16,
53,10,-3,-55,-54,20,-106,36,-81,-85,26,5,-23,30,18,-1,
-16,-36,34,9,-3,-127,-49,7,-57,38,-74,76,41,107,-26,-9,
-55,-42,-25,96,-127,62,-54,127,-59,59,-3,-105,-29,-34,17,-102,
39,-5,65,-42,-119,-34,96,-68,-17,-3,-127,62,28,101,1,-15,
59,2,15,9,-35,9,-17,39,-28,-42,86,6,11,-70,0,-12,
-19,30,42,7,-42,-49,48,24,100,-20,80,-35,-8,25,46,14,
30,42,90,74,24,-1,-19,27,98,77,95,-29,-41,-66,2,-35,
-29,67,41,-9,35,60,-15,-35,73,45,18,2,13,-25,22,13,
-19,114,-13,3,-15,-31,3,-52,66,26,-34,-18,-8,-69,37,52,
119,-61,-74,-79,-77,-59,-53,18,-33,50,-51,-100,-43,-39,45,52,
-50,-49,-58,0,26,-84,-15,9,0,-29,49,88,14,78,32,-19,
29,56,-19,35,35,-22,12,-19,5,-26,-23,90,-74,9,109,-37,
-39,-84,-127,-61,-74,-69,-50,9,-127,25,-48,-115,-20,-97,31,-21,
8,-46,1,5,-22,-33,-12,18,-127,-10,13,6,49,4,-6,4,
97,-3,127,36,121,2,81,-14,-12,-108,126,78,-45,115,-42,44,
-39,6,70,32,9,24,-9,12,121,76,89,89,116,-13,66,-36,
-11,-23,-1,-11,37,36,80,-11,58,-36,-15,30,-1,38,-25,-61,
49,-37,-22,9,39,24,42,50,54,25,8,-39,-2,31,-12,5,
-12,27,39,15,-18,-33,42,-46,19,-29,29,-13,13,13,-43,0,
-7,2,28,16,-8,114,-14,-18,0,-6,46,-6,7,22,-36,12,
127,3,73,-121,118,-15,42,66,-23,25,-61,-3,32,69,3,88,
-11,-38,17,3,-26,23,41,21,22,28,26,39,84,-15,-21,16,
15,-3,4,-47,26,80,0,-14,19,9,51,29,3,26,33,-13,
-87,83,-19,-13,-109,-122,-6,-86,-3,-1,45,-15,89,49,-16,-33,
-32,-36,54,46,44,-31,5,21,46,99,73,-44,-67,-5,-9,17,
26,9,14,11,32,-38,18,-7,34,57,4,3,-41,7,20,6,
56,-88,-48,32,-54,127,16,13,-39,2,103,-93,-52,17,-16,-60,
25,110,34,109,67,-25,101,-1,-14,-4,-75,41,-63,22,0,-55,
84,-6,9,59,-31,-23,-66,10,-20,-20,34,-4,78,12,-62,49,
110,53,-20,-127,72,-2,127,30,127,62,43,32,29,-45,102,127,
20,59,96,33,-60,-123,-62,-15,42,-21,-33,-105,-73,-11,6,90,
-14,127,74,2,57,-11,0,50,-77,-2,13,109,127,52,48,124,
-127,-10,54,-14,-28,74,-118,-64,18,-127,15,-107,1,-35,47,-52,
-25,-62,-127,14,127,118,88,61,-117,22,127,3,123,-13,-82,-49,
18,-25,-59,-40,-78,-21,-50,11,104,13,-118,-96,-55,-25,-69,-62,
110,2,3,-24,62,123,-51,-3,-55,20,-11,59,25,21,-17,34,
-43,9,-77,-35,-14,29,-4,-12,28,-15,9,-46,-22,110,30,-9,
37,-28,24,3,-35,66,-50,-13,-27,-8,-30,-64,23,12,-26,1,
-13,59,-41,-79,76,-64,77,-88,-45,-28,-56,57,125,-84,-14,-21,
-55,-33,-22,8,-10,-33,-43,39,-61,32,61,-58,79,82,41,76,
-56,-127,-127,-51,16,-24,12,86,-31,-11,-53,38,-41,43,5,-74,
-45,3,-36,127,-65,-33,-99,-22,-127,-59,-119,52,-19,26,-30,-39,
-119,-124,-43,-13,-120,3,35,-54,-28,32,-48,-3,115,32,106,19,
12,-127,-71,-52,-34,-59,62,-43,61,23,-30,-112,-127,-36,-16,-84,
112,7,48,-118,127,-78,112,-12,19,-78,98,89,7,-48,-40,43,
0,-1,2,119,-47,-54,-15,47,15,39,6,36,101,20,-36,0,
-35,-14,43,-82,65,44,40,39,37,-45,127,38,3,-26,-12,1,
-112,30,-21,-30,-47,18,-42,40,-106,19,43,-4,-49,40,19,28,
106,-63,9,-24,-32,-42,50,-7,-39,-19,-19,-14,65,125,45,-3,
34,-41,-19,-42,-3,-27,-51,22,-63,23,-27,-46,-23,-91,17,-46,
2,-66,40,50,21,-61,-22,-9,-1,-29,12,13,14,11,-12,86,
-33,40,76,-4,22,1,-37,15,-13,-10,33,-5,-26,2,-6,16,
-8,49,1,-79,-30,-10,-50,-79,5,-4,-9,-32,32,-24,-52,1,
-14,-45,-25,-12,4,23,15,9,73,-7,4,-35,6,-7,56,12,
37,111,101,-19,2,56,-35,-21,64,-43,-54,-8,46,-73,-21,-23,
14,25,-8,-21,-24,-62,-40,-26,45,-6,-2,-77,27,-54,3,47,
-81,-12,-6,-3,-50,95,-63,-17,6,15,-24,-28,-35,-1,17,-65,
21,82,29,-43,15,-51,50,32,35,-35,-80,-48,-57,-27,-29,-31,
-96,-12,-26,48,-2,48,-12,14,7,-59,19,-64,37,96,-43,55,
106,24,127,-49,24,-43,8,28,-44,-104,28,88,5,19,15,71,
43,-42,-62,-36,10,-2,-53,-3,25,84,18,45,81,10,-33,-67,
51,-47,13,-15,-4,-68,78,-39,39,85,13,126,70,17,20,-14,
60,-12,-25,-28,0,-56,60,-7,9,12,56,-71,-53,28,-60,70,
-9,-10,-2,2,-2,-50,85,-12,-7,-8,79,8,-36,16,-45,-8,
16,63,66,11,34,43,-55,-50,21,-34,-3,6,2,-46,100,17,
-73,17,-16,65,-20,-85,46,88,78,-66,55,-26,-126,-13,-1,85,
-43,-1,10,70,-30,67,3,-27,86,-60,31,53,38,12,-23,-75,
-50,37,88,-77,55,25,83,18,6,30,99,32,21,19,64,16,
18,-58,-34,3,-35,32,-1,49,-25,96,-57,-18,-3,29,90,-5,
-52,120,-43,114,60,-52,109,45,-26,-27,12,-97,-127,11,-6,9,
26,-10,10,11,16,23,45,76,-42,-38,10,29,44,85,34,77,
-53,26,57,37,-7,-37,29,48,71,-58,42,-32,10,13,-2,-26,
41,36,62,127,79,18,52,-77,122,114,18,64,79,-11,-19,124,
29,57,31,-5,-68,-23,-20,-33,4,15,-16,5,57,49,15,31,
-118,124,51,27,-5,0,62,15,-31,-86,53,14,-11,121,32,50,
17,-82,-3,-38,25,65,-15,-84,17,-26,64,-69,127,-8,-14,6,
-24,47,64,15,6,-5,49,-38,7,82,-8,51,-11,3,13,52,
83,0,79,-1,-44,-104,52,11,-45,51,-18,-34,24,-114,-10,-20,
-45,-49,-9,-5,4,-70,45,-24,91,36,-58,-4,-73,36,-37,-30,
9,-10,-27,-67,37,63,4,52,-6,-13,-23,23,-77,8,68,-5,
124,-17,0,52,15,-5,41,46,-13,24,4,-1,-36,-46,31,26,
-62,14,-4,44,-62,-105,-26,-44,6,79,29,-93,-11,-31,-95,-97,
15,-18,-6,34,87,-39,5,-28,-45,-29,-14,67,72,46,-39,-13,
112,-16,-7,38,-1,-21,-46,-16,30,75,26,70,-64,32,2,-21,
-82,88,49,-18,-16,3,-38,-2,42,-76,49,-100,-57,-9,26,-37,
-21,2,-116,19,2,-52,-18,-20,-65,-24,16,92,27,6,-40,-4,
13,-2,74,-12,27,26,-79,25,-10,57,45,-26,25,50,4,-6,
29,36,-27,-17,-52,88,15,-1,65,45,46,-117,-127,16,-60,-18,
-20,37,12,57,49,3,-11,-9,-13,92,-17,72,93,66,-4,50,
36,-34,-101,-48,16,-47,35,80,-2,98,-56,-80,-116,1,28,-28,
33,48,22,15,-20,99,-64,-113,-30,-82,-40,48,-24,56,-91,-46,
-6,49,60,-5,8,12,-33,55,27,19,-33,27,45,-24,20,71,
81,-43,-73,-10,-48,25,79,-30,-29,77,3,74,30,-46,30,-23,
25,-20,100,54,-28,56,-37,-30,40,-86,117,50,-34,-108,-25,-68,
-38,82,79,35,4,-56,4,50,33,2,-73,-26,-4,-5,59,55
};

const signed char cl_bias[CL_BIAS_SIZE] = {
-1};

const signed char cl_weight[CL_WEIGHT_SIZE] = {
-21,43,25,37,-53,26,-3,20,19,-24,-20,36,51,12,19,46
};

