#include "edgedrnn_params.h"
const signed char rnn_param[RNN_PARAM_SIZE] = {
4,-24,1,0,21,-1,23,21,41,-11,38,2,-37,12,31,5,
-127,-106,-127,-100,-103,-74,-112,-96,-103,-127,-127,-99,-121,-127,-127,-77,
-32,3,2,-5,6,-14,27,-1,40,-5,-4,-2,5,-12,-1,-4,
-29,-91,-22,-33,-29,23,0,38,-122,-13,-6,-102,-104,10,-12,-32,
-6,-40,26,1,-3,5,34,6,4,-11,16,-27,-1,-19,-3,41,
-18,6,-4,-7,17,-9,43,55,-19,0,0,0,27,5,-2,17,
-27,-20,-104,-7,26,-86,3,-15,-84,19,-76,-33,-16,36,-19,-57,
-65,41,78,-114,-127,-120,-127,-126,-123,-42,-115,-34,-18,-27,-43,-127,
2,23,-61,50,76,-36,-94,-36,-93,21,21,-61,2,28,18,-11,
106,-42,-98,57,-22,59,-20,127,-127,50,-60,-67,-64,-88,-37,-58,
20,-22,11,-109,78,10,-111,-35,27,95,-45,70,58,38,-61,-16,
-80,-98,92,-57,34,62,3,127,-22,-32,1,-86,-127,24,-7,34,
9,-86,49,127,-78,127,127,-57,-25,-53,-48,37,89,-73,92,-19,
-24,127,-20,127,17,-10,106,-41,39,-127,-127,-127,127,107,113,127,
-17,76,-95,-71,-14,83,-74,-72,-127,-13,-127,51,127,32,63,-52,
-1,54,31,-35,-13,26,127,-84,-61,19,-84,116,28,-115,47,127,
45,-96,-2,-39,17,66,-93,-9,-18,24,-41,31,93,-14,-7,-65,
102,6,29,-57,-14,49,12,-93,-8,127,126,-5,-7,-125,-127,79,
42,16,65,91,-2,87,-31,7,0,43,2,-12,-53,-1,25,65,
-70,-15,-97,98,-19,93,1,-117,-3,-103,-112,-112,-42,-46,-96,-127,
73,-46,-69,54,47,11,-14,7,-23,8,29,-4,11,42,6,9,
-19,-104,127,124,114,111,7,21,-64,-78,127,-127,4,-6,-127,96,
87,126,119,127,4,-49,-28,5,111,116,109,127,-56,112,-127,127,
-26,-4,-56,-7,61,-85,-71,101,42,-19,45,-8,-60,19,-105,-89,
0,0,0,0,0,0,0,0,0,0,0,0,0,0,0,0,
0,0,0,0,0,0,0,0,0,0,0,0,0,0,0,0,
0,0,0,0,0,0,0,0,0,0,0,0,0,0,0,0,
0,2,50,-29,21,-29,-60,-27,-17,39,45,74,7,22,-39,17,
-126,-70,-12,62,-10,70,52,-11,-32,-38,31,-62,112,68,112,-47,
6,16,-14,9,54,-59,-37,-40,-50,-20,-4,7,0,-6,0,-8,
33,66,48,-66,35,-35,124,26,12,-70,19,-29,3,-22,10,-102,
15,5,49,-61,-60,-91,-89,-88,-127,-39,-104,-15,-1,63,-80,-18,
-33,9,0,-17,-86,-39,-19,-75,71,22,-1,64,-12,10,-6,-9,
13,86,-6,4,-63,-11,14,16,-26,4,16,-1,-7,-7,49,4,
-42,-10,-12,-37,20,-57,-5,-7,85,60,71,83,-61,77,-71,124,
-7,22,45,2,27,-51,6,-1,-42,51,106,-20,-16,-27,2,11,
-79,19,-45,3,34,-20,-19,-18,-87,-18,-57,14,-53,84,-59,87,
-124,-54,-16,-57,-7,54,-45,-121,-6,-44,-22,59,54,31,62,-33,
34,-4,53,44,25,66,-38,26,-54,22,32,32,7,0,-79,30,
-7,30,8,53,-16,41,-14,3,-91,100,17,13,-56,79,-11,-44,
37,-46,67,-47,52,-65,-9,-100,-42,14,-127,-90,34,-86,-61,-14,
22,45,-112,4,37,-5,-34,28,-49,-22,-16,50,1,-53,24,-16,
2,22,42,-13,71,91,59,-79,-22,-41,85,66,75,-70,127,41,
41,-58,-91,-5,-42,1,16,33,9,-17,-118,-26,88,127,23,57,
-53,22,-33,-40,3,31,-20,33,-49,21,-127,2,-31,1,114,-81,
5,-87,-18,34,29,-42,54,3,-36,62,-56,-9,0,59,90,-60,
73,70,50,-35,-65,-6,104,119,46,-33,-17,-64,21,3,-47,95,
82,-60,-3,55,19,22,22,-33,9,-31,21,-24,23,-43,11,-42,
74,-21,-48,30,56,-28,-21,-4,-101,38,107,-126,-1,-109,-24,28,
51,41,-14,55,3,19,-74,123,73,116,-27,8,32,54,42,76,
27,16,-7,42,-92,63,-33,54,38,-61,-5,-51,21,70,19,-25,
19,26,8,-46,-65,-14,-50,-46,20,-84,4,11,37,9,-51,-16,
-66,81,-27,47,-1,31,-63,100,57,-72,-32,-4,-74,-3,-127,29,
42,-10,13,31,7,-31,-16,-19,113,18,-43,-60,-14,78,42,17,
61,21,116,-20,-47,-5,84,-49,99,-68,-32,64,22,-26,50,-21,
-73,-18,-34,30,-18,12,40,-9,-10,-12,127,-18,5,55,90,19,
-60,13,-77,-111,24,-3,-15,-54,26,-22,-119,77,-58,85,106,-8,
42,8,83,116,34,-57,-92,88,-20,94,124,-8,-63,39,-23,78,
-51,18,-23,-127,-21,19,-49,24,68,-48,127,2,-31,16,-69,38,
-7,33,-42,-11,73,25,-46,39,-21,15,-59,-19,-22,-71,2,-54,
-37,-13,127,-37,38,1,-39,-44,127,-97,34,-100,-15,59,19,48,
-81,55,-19,96,-119,-36,71,26,27,-71,52,-56,-71,29,52,11,
-15,-55,-21,-22,3,-60,26,-61,71,43,18,-9,-1,-8,11,26,
47,-47,-22,-11,49,-27,111,-13,-26,27,-25,-32,40,26,46,-52,
38,-18,-2,-25,-41,56,1,29,-9,-19,-23,-23,10,-22,-71,40,
16,-39,-40,-31,-41,46,-36,-73,-10,58,-28,41,3,-35,28,-71,
10,61,-40,42,61,8,-81,45,62,17,111,7,-24,101,-25,77,
-41,38,29,77,50,24,54,14,33,-18,16,22,47,65,8,-82,
5,-16,-8,0,-14,14,-112,34,-68,-8,1,-8,17,-41,15,-36,
20,3,-48,40,54,-80,-117,-10,51,51,-6,-69,13,-37,113,-51,
57,15,2,-30,-94,17,73,18,-37,-11,31,-91,-19,-121,54,52,
19,1,-66,-34,-33,-14,-26,17,-47,-11,62,36,40,-35,-66,-65,
-42,24,-15,-55,-49,96,77,-6,-21,4,28,2,-23,-32,-103,42,
41,-37,30,3,34,-38,29,-22,-17,-10,28,13,25,-121,127,93,
42,10,-15,50,-25,10,-23,53,-77,-8,14,-34,-9,19,-21,-51,
-47,34,35,7,-29,20,-20,-8,-12,-39,0,54,28,31,8,13,
17,-115,-94,-29,35,-58,-31,-16,-98,44,-21,-127,-75,-68,-44,-103,
19,-22,-3,-11,1,-44,-10,20,-5,22,-21,29,27,7,-1,-1,
46,-58,-38,-19,-8,84,49,-33,51,66,-36,42,66,89,14,19,
5,26,22,-55,-21,27,-87,11,-80,-34,58,8,-7,-15,-1,18,
-21,-34,18,56,-14,-106,-34,-3,-71,62,-70,43,20,108,-16,-3,
-33,38,-11,107,-120,64,-113,41,-43,-37,110,-113,-25,-64,-5,-80,
-38,-12,56,-43,-94,51,77,-36,-69,-45,-74,34,36,4,79,8,
41,12,19,27,-30,-24,-37,38,4,-54,37,8,-4,-98,2,-14,
-4,103,43,15,-52,-49,13,18,69,61,56,-47,11,20,26,14,
-17,87,68,42,4,1,-1,16,63,50,47,-6,9,-18,24,-33,
-4,95,28,-7,31,45,17,-39,82,23,25,18,-7,-19,28,9,
6,31,-111,-2,-13,-35,11,-35,12,-17,-57,-61,-26,-77,13,37,
68,-21,-62,-65,-32,31,-33,28,-34,60,16,-91,28,-127,23,48,
-42,-32,-25,-29,22,-96,-37,3,-29,19,3,89,31,116,4,-5,
20,42,16,13,41,-13,7,-3,-62,11,-37,49,-71,-16,122,-19,
27,-61,-127,-71,-77,-75,-10,-17,-105,-31,-12,-48,-10,-55,3,-24,
-1,-68,20,-2,-18,-29,-21,8,-97,3,8,4,36,13,-4,2,
26,-41,124,13,96,38,99,27,-4,-56,49,116,-7,67,-83,35,
-37,29,84,45,87,50,-81,24,112,34,53,24,125,-38,77,-41,
-12,-28,10,-52,34,25,67,-32,50,-48,-17,52,-18,20,-37,-54,
43,-17,-6,-8,30,53,15,77,93,3,15,-55,13,16,-15,-1,
-12,57,47,68,1,-51,21,-17,-10,32,-8,48,21,13,-57,5,
-2,2,46,-2,-1,118,2,-13,-5,16,24,-13,3,17,-24,16,
66,31,44,-127,127,-37,124,68,11,-65,-43,-18,44,25,-2,98,
-6,-35,14,29,-5,23,10,24,52,31,40,5,72,-8,-27,-41,
-5,3,-8,-127,40,76,-13,0,14,14,31,33,-21,9,47,-13,
-88,73,4,-12,-83,-112,-20,-87,-3,14,23,-36,80,64,-14,-10,
-44,-28,28,63,37,-16,-26,9,75,75,29,-50,-43,27,-15,-3,
27,23,15,27,27,-34,19,-5,33,47,-17,-15,-43,11,22,-3,
23,-71,-49,37,-20,124,34,0,-44,88,127,6,-72,22,-3,-36,
1,74,20,112,62,-20,90,-19,-45,-44,-18,30,-7,-32,26,-23,
82,4,64,74,-20,-38,-73,13,5,-18,67,8,78,19,-36,38,
86,-20,27,-126,84,2,54,-16,48,-46,74,31,-15,-34,117,127,
18,90,82,-23,-37,-124,-36,-17,31,28,7,-92,-15,-45,113,88,
43,127,83,-26,65,-12,-16,52,-71,-28,24,119,127,34,79,127,
-27,-72,-62,124,-127,98,-124,-38,92,86,-94,-98,49,120,52,-65,
-31,79,-43,5,127,71,52,65,-36,6,78,-23,100,-28,-33,-53,
9,11,-38,42,-100,-39,-50,-1,50,15,-121,-124,-16,-19,-64,-22,
91,-12,-25,-39,63,123,51,68,-8,13,10,9,13,33,-10,28,
-48,23,-11,-15,0,11,11,-38,28,16,27,-29,-24,75,-31,22,
13,-37,19,7,-33,24,-43,-1,-18,-7,-13,-44,15,14,-23,-2,
-16,127,-86,-116,107,-73,33,-64,6,-115,-66,1,127,-72,2,8,
-70,-71,-28,-10,4,33,-54,61,58,58,60,-19,80,21,1,89,
-75,-127,-127,-20,9,-25,3,68,-46,9,-63,5,-52,32,-4,-78,
-16,58,-36,115,-52,-1,70,40,8,11,-107,-4,30,90,-56,11,
-103,-127,6,4,-13,-49,35,-52,15,44,-23,13,62,60,-48,-12,
-46,-127,-127,-53,-42,-115,66,-39,58,-23,-45,-50,-127,-12,-42,-114,
127,-96,-36,15,-14,59,29,37,-26,20,-44,62,70,58,-49,65,
-37,78,18,127,17,-21,-15,50,-14,-88,26,47,16,11,-22,15,
-6,61,63,-66,58,31,19,19,40,-15,60,42,57,-26,-40,57,
-105,8,23,-27,-33,-3,-4,27,-49,-38,73,27,-69,28,12,33,
25,-125,5,-18,-33,9,35,-18,-20,58,-48,15,37,56,7,6,
12,-64,27,-40,-3,-16,-38,44,-46,11,-20,-36,-15,-101,20,-40,
4,-35,73,46,24,-44,-22,-21,34,-20,17,29,16,14,-16,77,
-48,66,52,-25,35,17,-37,5,-5,-12,32,-54,-38,-7,39,43,
10,30,-30,-75,-33,14,-44,-71,-25,21,-12,-25,24,-8,-38,12,
26,-40,10,-4,-7,0,9,3,89,39,-6,-63,2,1,41,-12,
30,100,27,-52,5,34,-36,-27,-2,-14,-59,-13,-1,-74,-35,-4,
16,38,13,-31,-44,-42,-27,-22,21,-10,-12,-110,37,-49,12,40,
-83,-16,20,-15,-32,110,-57,-63,-24,39,-32,-11,8,-1,27,-60,
37,72,27,-89,9,-110,54,30,13,-72,-35,-41,-42,42,-60,1,
-73,-3,-44,46,-2,39,-6,-2,35,-32,37,-71,30,68,-64,24,
82,88,100,-40,48,-38,-2,20,-55,-127,17,121,21,10,20,69,
30,-38,-32,-17,66,30,-63,-13,-2,71,-3,36,77,0,-12,3,
38,-17,15,-23,14,-30,69,-29,16,46,-21,127,65,17,22,-4,
33,-16,-20,-28,-1,-82,52,9,25,29,55,-23,-38,8,-60,35,
-24,18,8,-3,47,8,27,12,5,21,34,74,-29,-35,-24,-22,
21,67,114,7,17,67,-19,-47,-1,-9,3,-1,-9,-43,88,1,
-25,-20,-78,59,-16,-52,22,51,13,-101,23,24,-68,-17,3,68,
-13,30,46,75,3,61,-17,-21,37,-104,50,45,28,18,13,-77,
4,45,71,-72,56,14,95,40,-18,1,91,4,62,22,65,31,
30,-82,-16,12,-25,16,8,30,-114,66,-38,0,4,30,99,-7,
-80,127,-61,72,14,-58,62,21,73,-42,-5,-107,-27,-38,20,17,
28,-8,17,14,30,4,42,94,5,-13,39,30,25,35,46,71,
-58,18,61,40,-4,-31,13,29,50,-37,40,-31,22,20,-29,-8,
5,15,63,120,66,19,-3,-80,127,72,26,34,98,6,-23,103,
38,93,66,-12,-57,-5,-38,-14,10,52,-25,18,31,52,13,34,
-85,104,-18,-9,-6,-8,55,-7,13,-52,9,21,-30,87,7,49,
26,-68,-36,-36,-27,64,-74,-68,-7,56,21,-3,115,10,-30,15,
-6,23,0,6,1,-11,49,-48,-4,102,-44,39,-60,17,-6,44,
110,-6,60,33,-38,-75,-52,57,-90,-6,7,-6,30,-103,-30,-43,
-31,-19,-12,-37,12,-41,34,-1,75,-63,-77,-3,-95,24,25,-69,
17,-27,-6,-54,48,86,-3,38,-17,-30,4,25,-54,8,50,-18,
115,4,25,44,3,25,44,40,-40,-14,10,41,-33,-46,58,18,
-57,57,-22,62,-38,-102,-35,-51,-1,23,-6,-100,31,-8,-88,-66,
10,-23,6,31,76,6,5,-25,-50,-16,-40,55,50,52,-49,-10,
125,3,15,35,7,44,-28,-14,26,40,20,77,-34,29,48,-30,
-77,68,55,-7,40,8,-91,34,49,-62,35,-119,-70,-41,29,-12,
-14,-33,-124,-3,10,-48,-22,-17,-68,-37,13,64,46,-20,-31,6,
33,2,-6,-20,24,22,-27,44,10,22,30,-5,-5,52,19,15,
32,100,-5,-20,-56,33,-27,-34,15,-6,51,-111,-127,31,-32,-50,
-14,43,6,63,61,-7,3,-12,-6,85,1,76,79,87,4,49,
50,-14,-62,-54,31,-108,20,52,1,-23,-31,-40,-105,-9,14,-24,
49,8,-53,-48,-38,67,-46,-108,-31,-36,-11,9,-33,11,-88,6,
-10,36,64,-28,12,19,-41,37,-14,0,-40,33,40,-16,40,71,
115,-36,-98,-7,-44,48,13,-19,-56,23,-11,66,65,6,18,-13,
57,-3,91,18,-28,35,-27,-25,1,-84,117,4,-1,-80,-7,-2,
-53,66,30,17,-16,-50,-3,36,4,47,-54,-33,8,-8,90,63
};

const signed char cl_bias[CL_BIAS_SIZE] = {
1};

const signed char cl_weight[CL_WEIGHT_SIZE] = {
-26,48,25,43,-55,36,9,21,9,-24,-22,43,58,18,18,42
};

