#include "edgedrnn_params.h"
const signed char rnn_param[RNN_PARAM_SIZE] = {
27,21,2,9,13,-11,36,22,44,55,25,32,15,13,40,40,
-96,-117,-115,-127,-34,-121,-127,-110,-65,-127,-119,-127,-107,-127,-118,-127,
-4,5,12,-42,-6,-2,8,12,13,-17,32,4,-5,-11,-16,14,
39,-16,-20,76,-6,25,-24,31,50,46,22,25,-28,-2,50,98,
-127,-127,-118,-127,-36,-122,-127,-127,-127,-127,-93,-124,8,-99,-26,-127,
-14,-38,7,-13,-16,-10,-50,3,-1,13,45,-51,-1,-5,26,35,
-54,13,38,33,33,59,127,-18,13,38,88,55,96,66,-65,85,
-120,-127,-106,-30,-127,-127,-127,-65,-60,-104,-127,118,-127,-127,-127,58,
-127,78,-80,65,3,86,127,127,-110,-127,126,127,51,27,125,-127,
-6,-62,66,-81,23,48,12,42,-19,63,48,-34,-110,-14,7,-58,
-12,24,-15,35,-18,69,-6,-56,-6,-6,37,25,44,6,35,82,
-57,43,6,-33,0,-6,47,77,-37,-61,-12,20,17,-21,60,-58,
24,-59,-25,47,-102,15,-43,31,26,17,-92,37,-43,125,-5,32,
-22,127,88,67,127,127,127,90,6,-50,127,70,127,127,42,127,
-37,-124,112,-107,110,-119,-83,29,-60,4,-60,38,-125,126,-22,-94,
2,-15,-33,9,30,-27,16,-54,-91,53,64,-30,-73,-76,33,-63,
-82,121,-11,70,127,51,-116,-69,126,-126,27,-127,50,68,-117,-16,
-16,-2,42,-86,57,-5,-53,9,-40,12,-10,-32,-12,23,10,0,
0,0,0,0,0,0,0,0,0,0,0,0,0,0,0,0,
0,0,0,0,0,0,0,0,0,0,0,0,0,0,0,0,
0,0,0,0,0,0,0,0,0,0,0,0,0,0,0,0,
0,0,0,0,0,0,0,0,0,0,0,0,0,0,0,0,
0,0,0,0,0,0,0,0,0,0,0,0,0,0,0,0,
0,0,0,0,0,0,0,0,0,0,0,0,0,0,0,0,
0,0,0,0,0,0,0,0,0,0,0,0,0,0,0,0,
0,0,0,0,0,0,0,0,0,0,0,0,0,0,0,0,
0,0,0,0,0,0,0,0,0,0,0,0,0,0,0,0,
-3,6,-22,48,-7,-26,22,21,32,-35,38,-11,31,-10,-50,-2,
58,-20,14,-68,-5,55,27,62,31,114,27,100,26,11,48,-57,
6,-32,22,6,18,-8,-9,-42,-7,9,-29,-45,42,-9,-54,44,
-35,18,41,-31,47,9,35,46,21,5,25,27,26,-24,-34,35,
-5,30,-54,67,-110,-32,58,1,47,28,21,59,-110,106,-34,51,
2,30,-62,81,-19,49,3,-30,20,-28,51,16,-12,-62,-25,63,
-40,-50,-62,-22,-32,-43,-33,-18,-47,21,-40,-16,-56,-29,-29,-24,
25,-46,-15,-1,101,-35,-53,-3,80,-21,-9,-52,-7,-124,36,-24,
47,-36,48,-4,7,-31,6,-30,-21,62,-26,-22,-3,-10,-54,1,
-28,3,48,45,-7,24,-18,-9,0,-106,24,-19,42,-42,-65,8,
-5,20,55,-60,-63,36,26,-36,-73,36,28,64,127,84,121,17,
-8,31,-49,-14,9,60,19,24,63,-15,10,-44,68,-6,5,57,
-21,-26,-24,-13,-27,-40,-46,-23,-45,-16,-16,-75,-26,25,-29,-45,
119,29,-35,-55,19,49,-15,74,79,13,-16,-7,-5,-27,48,51,
-13,-44,-1,-22,9,-1,10,40,-39,-2,26,49,-11,-20,21,21,
25,47,28,11,53,56,98,52,59,-2,34,46,88,-32,-21,-24,
-35,-76,-31,60,-13,-44,24,0,-37,43,36,12,-27,100,-109,25,
-21,47,-51,-27,-52,46,64,38,16,-44,47,18,-37,-3,37,15,
29,13,42,-51,30,75,-49,95,12,22,14,34,22,8,-48,-23,
40,1,-49,31,-52,-34,2,6,-73,18,33,30,-18,91,12,6,
44,-58,20,12,1,22,-23,23,-14,44,18,-34,-40,5,-51,52,
43,30,71,-39,57,77,-29,-16,11,27,-18,-12,43,-2,-35,32,
-88,-5,-36,56,-10,-57,-41,-50,-21,-74,9,-75,-31,-12,-63,0,
-22,11,-14,-32,-8,-16,7,36,28,22,9,18,-26,21,-7,-35,
16,-1,-5,4,1,-1,-22,28,48,-14,27,23,-20,-7,0,100,
-55,-37,2,49,30,-56,39,-81,0,36,33,44,112,38,-106,-127,
5,-84,49,-25,29,-47,-35,-41,3,55,-22,-9,-26,7,-52,-25,
3,-13,-93,8,9,-52,-30,-63,4,-48,47,27,60,46,-61,-30,
27,-60,92,-4,43,72,56,6,34,102,-28,-18,53,-89,-11,23,
22,63,-25,31,36,-14,-4,12,-58,20,-28,-35,9,47,32,43,
38,9,3,11,38,4,45,-17,19,54,-37,0,21,-2,23,60,
-83,-71,-56,38,45,-100,-54,-26,-25,-43,2,-57,19,-44,-96,-38,
16,17,11,15,-19,-10,55,-1,-12,7,40,49,-13,26,29,-13,
3,-40,10,-93,1,31,-39,22,12,-22,-61,-45,-7,-20,-42,-95,
41,8,17,64,-58,-20,31,26,79,-67,-20,85,-86,54,-14,89,
-39,-10,-30,33,22,-16,71,61,9,-32,20,23,-81,-38,55,-30,
-26,66,5,47,24,-24,-20,38,-16,-33,28,-13,21,-69,-3,21,
-60,50,22,15,42,-26,-33,-61,44,43,41,0,-20,32,7,13,
-24,1,-55,45,12,15,33,3,3,0,31,9,59,-10,9,-23,
13,-36,-90,7,-70,-68,100,5,-22,7,-7,47,10,23,17,-8,
-40,-34,19,113,27,84,-1,8,48,-32,-53,-80,67,-125,-37,110,
-60,-35,-12,-34,69,24,19,36,-16,-82,-17,74,-45,20,45,-90,
-27,-10,58,-11,12,21,15,23,-44,89,35,-27,-7,-62,14,-43,
-20,7,-24,73,-13,-4,-39,-22,5,-76,-8,-91,-94,44,-6,27,
-24,18,-56,18,-52,51,67,44,-34,-75,42,65,40,-39,8,-45,
10,54,39,22,61,-6,14,1,53,-8,31,48,30,32,52,36,
-32,-60,17,-18,51,-18,-46,7,0,14,-9,-14,29,11,-85,-59,
9,1,-1,-26,-5,3,-51,-37,47,-25,-23,15,27,54,-15,21,
43,32,-27,33,21,20,78,40,52,28,55,31,77,62,63,45,
-127,-96,-127,-127,-127,-127,-127,-127,-127,-127,-127,-127,-127,-127,-127,-127,
13,0,27,44,-26,7,4,-22,-24,-14,-6,15,31,39,-45,1,
-36,45,-71,57,40,33,-8,13,-42,47,-43,37,-58,-1,13,11,
-30,-33,1,-27,26,10,25,-45,-59,-16,-22,-13,3,32,26,-47,
51,-14,57,-81,30,56,-121,70,-45,-2,94,-37,-95,65,64,65,
73,67,114,45,8,-58,-88,13,42,8,37,38,13,-52,-18,2,
-46,-44,28,-18,-20,13,-58,-18,-60,-3,-39,-58,-3,6,-25,-20,
-9,93,-35,66,-67,-96,-69,-104,44,-35,15,44,90,-127,-66,-9,
-28,-50,-104,-28,-73,70,41,-16,-28,-25,-5,-51,-13,66,-36,-54,
57,127,64,108,127,97,11,116,91,127,-52,66,61,94,127,-34,
-60,-125,80,-14,44,93,79,-13,29,30,-20,-28,-25,125,47,-30,
-52,36,93,7,20,-62,-114,38,-65,51,-65,33,-76,0,-54,-46,
-19,-126,54,-22,63,10,127,-41,26,127,127,127,-14,126,127,127,
63,6,-2,3,16,-75,-91,36,-43,-87,69,75,20,-116,2,23,
-51,-70,15,11,8,-49,-1,0,-54,-6,-34,3,-73,-36,-74,-44,
125,127,127,70,118,127,127,127,77,117,92,127,127,127,127,127,
-44,-11,9,-24,11,29,27,42,72,6,-33,-52,-44,34,74,-10,
57,43,80,61,16,-39,-24,9,48,87,46,24,42,7,63,43,
-127,-127,-127,-127,-127,-127,-127,-127,-127,-127,-127,-127,-127,-127,-127,-127,
68,53,-53,15,-55,-110,-88,-64,-14,-98,52,69,52,-101,-81,24,
4,-15,124,52,63,0,-48,-23,16,12,17,52,54,-38,-30,-7,
-22,-53,15,-2,-24,27,-4,16,6,-36,34,-6,23,24,-30,23,
-75,48,-103,55,-75,-84,22,-26,64,-115,-30,99,35,-126,-22,-40,
4,-11,36,-3,-59,10,22,17,65,-46,55,10,32,12,-31,54,
-26,-7,-70,-70,-76,-98,-52,-8,-17,-25,-70,-49,-73,-90,-68,-54,
-68,7,-54,8,-53,-10,98,-14,37,-42,-98,57,49,-62,-70,-106,
50,-17,35,68,107,33,-25,55,-22,52,5,30,-37,84,24,32,
-124,-101,-127,-89,-127,-127,-127,14,-126,-108,-127,-127,-127,-127,-127,-127,
109,8,28,-3,17,-46,-78,14,-127,-18,65,-6,-51,4,55,45,
-14,26,-124,3,27,114,82,-22,17,47,28,41,-2,7,2,15,
12,-30,18,1,22,17,-18,11,-12,38,-20,36,13,31,18,27,
86,-90,44,-91,68,81,-54,90,-77,49,104,-30,-33,116,49,97,
33,46,5,-29,-62,53,19,58,31,12,60,41,94,98,32,50,
-127,-127,-127,-127,-116,-127,-127,-127,-126,-122,-127,-109,-127,-127,-127,-127,
33,-11,27,54,-50,-22,-20,-18,-59,-1,-36,20,53,-1,-73,12,
-46,-28,-29,-32,-43,44,63,-9,14,-15,24,4,11,-30,-48,23,
94,17,29,38,123,92,121,13,49,69,119,52,60,127,108,62,
-108,31,-77,50,-50,-83,79,-34,86,-92,-65,52,74,-52,-74,-118,
2,-43,-23,-6,7,15,-45,35,-5,-1,-23,42,49,29,20,6,
-127,20,-105,-56,-100,-112,-127,-24,-94,-126,-105,-64,-106,-110,-122,-127,
60,84,-42,73,-83,-44,-100,-96,-75,-71,89,3,115,-29,-110,84,
-20,-52,-115,10,52,61,81,9,7,53,73,62,33,-29,16,23,
82,58,106,8,50,90,30,46,97,74,66,42,88,42,53,9,
-48,-110,115,-81,68,79,35,104,20,90,-43,-78,-68,127,84,-19,
-1,-5,66,-85,-29,-3,-1,3,-9,-37,7,-28,-7,-44,-16,14,
85,94,-1,15,17,-4,103,25,127,11,35,-40,-6,-25,-19,94,
-32,104,-73,53,-10,-18,69,-39,52,-48,-127,32,67,-44,-35,-89,
59,25,25,95,49,7,52,69,5,53,37,16,69,57,110,20,
-127,-27,-113,-108,-107,-127,-127,-106,-86,-113,-127,-46,-87,-86,-64,-127,
114,-20,67,13,-21,-23,-30,22,-111,29,31,-36,-33,2,26,59,
22,-48,5,26,-21,-10,-15,32,15,7,17,-6,56,20,15,58,
-39,1,-44,-31,-113,-64,-113,5,-44,-78,-86,-52,-32,-127,-125,-11,
66,33,-23,-31,-17,22,4,-65,-107,14,11,-23,42,54,-68,28,
14,12,70,62,4,69,-13,-17,56,6,32,43,-41,51,23,67,
-55,55,-33,2,-77,-42,-42,10,-80,-64,-29,-67,18,-114,-71,-13,
2,113,-46,-6,-25,28,4,-55,-16,8,21,-15,-6,-13,32,3,
-27,-34,-26,15,-1,31,9,-4,-12,10,-7,24,-6,24,-30,6,
7,39,-58,-59,23,-35,-13,-32,23,-27,45,14,-36,102,-7,30,
35,-34,31,-28,2,-14,-39,32,-29,6,41,-47,13,44,-25,43,
-25,35,-84,-14,-9,-13,-8,31,33,22,-18,7,65,85,93,18,
-65,-63,8,77,120,17,-102,14,-29,103,-78,103,-20,114,83,-77,
31,5,-8,59,-99,10,89,9,-43,-85,-55,41,38,72,-82,-3,
39,-16,88,-47,-24,23,-1,-45,37,35,10,9,-58,-63,-45,-16,
17,18,44,-41,-66,19,78,8,11,-42,81,-125,-51,-30,-111,35,
-13,-19,18,-53,20,-24,-63,16,-14,41,10,-41,-11,-23,47,44,
-25,-71,-10,-19,-43,68,14,-38,14,-4,-5,-24,16,11,0,-12,
83,51,-15,13,-29,-65,-32,25,114,-29,-8,-120,-35,-58,-127,43,
-23,-47,77,-12,33,35,-79,25,-62,5,21,-74,-20,43,51,17,
-32,-37,-50,33,-2,35,120,-20,-79,2,-118,-34,-37,-54,31,-106,
52,-45,34,100,121,59,-49,5,61,103,-8,124,42,126,120,29,
-62,-113,3,0,-13,-6,49,88,29,-34,-25,32,-43,21,24,-62,
-82,-29,1,-36,-12,-19,-7,-5,-90,32,-39,10,-8,-16,-27,-95,
40,-75,33,-21,53,45,86,-38,61,18,56,66,30,103,64,54,
-12,-16,18,-31,49,-25,-49,63,10,13,14,-38,-58,-22,36,1,
28,13,32,-9,-26,-38,43,11,13,18,19,-32,-64,-29,-23,37,
18,-55,6,-14,37,90,127,9,3,58,76,72,75,112,108,58,
-107,-54,-12,-37,-2,-88,9,27,99,-21,-32,36,-96,-69,34,-59,
41,-48,60,-58,18,45,2,-7,40,-42,34,-59,-7,-7,-17,19,
127,69,21,-16,5,17,27,53,64,-36,60,-49,-12,-26,-70,53,
38,33,48,-54,17,11,-73,-22,36,96,-58,-54,44,0,-19,-12,
44,15,56,42,58,-25,15,10,0,50,66,31,-8,-9,1,20,
-65,22,-57,-125,-127,-36,-104,19,-122,-123,-31,-126,-46,-127,-127,-57,
26,75,18,-29,29,-29,-37,-25,-66,43,127,25,2,-24,25,62,
8,9,-65,8,-27,-42,-3,27,-27,1,-6,68,-9,46,-6,-7,
-124,-43,-79,-82,-66,-60,-110,-34,-92,-93,-82,-51,-81,7,37,-117,
20,-45,-67,52,-10,-21,58,52,7,-54,17,34,-14,-37,-32,-32,
24,2,-93,-42,-8,-31,30,0,5,15,16,-27,45,41,26,18,
41,-50,-22,117,81,-13,-36,-39,-6,51,-32,117,23,32,36,-76,
23,9,-42,35,-27,26,43,-29,-29,-25,-43,21,74,-4,-83,-13,
-28,-56,-52,-4,-58,34,72,-16,16,-24,-18,-5,9,-4,-2,13,
77,3,18,58,86,20,39,-15,103,69,-30,61,-7,-35,48,-20,
26,-18,71,21,-1,24,-56,-4,-48,59,43,-57,35,126,-12,15,
35,-51,76,21,4,30,27,-9,-33,-3,44,-50,-81,-55,-46,-5,
-33,-35,26,-36,-77,41,79,-20,34,-22,99,26,52,37,19,88,
15,54,-18,-2,35,-41,-92,9,54,52,96,2,-32,-65,50,-28,
44,-82,23,-42,44,39,21,-28,38,7,35,11,28,16,47,62,
-26,30,-41,-11,-95,-103,-124,29,-31,-99,-42,-49,-43,-127,-126,-64,
83,22,-19,-4,-21,62,-39,-22,-73,3,12,-57,45,0,13,56
};

const signed char cl_bias[CL_BIAS_SIZE] = {
127,-127};

const signed char cl_weight[CL_WEIGHT_SIZE] = {
127,127,127,-127,-127,127,127,-127,-127,127,-127,127,-127,-127,-127,127,
-127,-127,-127,127,127,127,127,-127,127,-127,-127,127,-127,127,127,127
};

